Language model created by QuickLM on Tue Feb 28 10:58:46 EST 2012
Copyright (c) 1996-2010 Carnegie Mellon University and Alexander I. Rudnicky

The model is in standard ARPA format, designed by Doug Paul while he was at MITRE.

The code that was used to produce this language model is available in Open Source.
Please visit http://www.speech.cs.cmu.edu/tools/ for more information

The (fixed) discount mass is 0.5. The backoffs are computed using the ratio method.
This model based on a corpus of 12 sentences and 14 words

\data\
ngram 1=14
ngram 2=24
ngram 3=12

\1-grams:
-0.7782 </s> -0.3010
-0.7782 <s> -0.2218
-1.8573 END -0.2218
-1.8573 FINISH -0.2218
-1.8573 FIVE -0.2218
-1.8573 FOUR -0.2218
-1.8573 GOODBYE -0.2218
-1.8573 HELLO -0.2218
-1.8573 NO -0.2218
-1.8573 ONE -0.2218
-1.8573 START -0.2218
-1.8573 THREE -0.2218
-1.8573 TWO -0.2218
-1.8573 YES -0.2218

\2-grams:
-1.3802 <s> END 0.0000
-1.3802 <s> FINISH 0.0000
-1.3802 <s> FIVE 0.0000
-1.3802 <s> FOUR 0.0000
-1.3802 <s> GOODBYE 0.0000
-1.3802 <s> HELLO 0.0000
-1.3802 <s> NO 0.0000
-1.3802 <s> ONE 0.0000
-1.3802 <s> START 0.0000
-1.3802 <s> THREE 0.0000
-1.3802 <s> TWO 0.0000
-1.3802 <s> YES 0.0000
-0.3010 END </s> -0.3010
-0.3010 FINISH </s> -0.3010
-0.3010 FIVE </s> -0.3010
-0.3010 FOUR </s> -0.3010
-0.3010 GOODBYE </s> -0.3010
-0.3010 HELLO </s> -0.3010
-0.3010 NO </s> -0.3010
-0.3010 ONE </s> -0.3010
-0.3010 START </s> -0.3010
-0.3010 THREE </s> -0.3010
-0.3010 TWO </s> -0.3010
-0.3010 YES </s> -0.3010

\3-grams:
-0.3010 <s> END </s>
-0.3010 <s> FINISH </s>
-0.3010 <s> FIVE </s>
-0.3010 <s> FOUR </s>
-0.3010 <s> GOODBYE </s>
-0.3010 <s> HELLO </s>
-0.3010 <s> NO </s>
-0.3010 <s> ONE </s>
-0.3010 <s> START </s>
-0.3010 <s> THREE </s>
-0.3010 <s> TWO </s>
-0.3010 <s> YES </s>

\end\
